<?xml version="1.0"?>
<opencv_storage>
<cascade>
  <stageType>BOOST</stageType>
  <featureType>HAAR</featureType>
  <height>24</height>
  <width>24</width>
  <stageParams>
    <boostType>GAB</boostType>
    <minHitRate>9.9500000476837158e-01</minHitRate>
    <maxFalseAlarm>5.0000000000000000e-01</maxFalseAlarm>
    <weightTrimRate>9.4999998807907104e-01</weightTrimRate>
    <maxDepth>1</maxDepth>
    <maxWeakCount>100</maxWeakCount></stageParams>
  <featureParams>
    <maxCatCount>0</maxCatCount>
    <featSize>1</featSize>
    <mode>BASIC</mode></featureParams>
  <stageNum>7</stageNum>
  <stages>
    <!-- stage 0 -->
    <_>
      <maxWeakCount>4</maxWeakCount>
      <stageThreshold>-1.9856663942337036e+00</stageThreshold>
      <weakClassifiers>
        <_>
          <internalNodes>
            0 -1 6 6.2844492495059967e-02</internalNodes>
          <leafValues>
            -9.6456694602966309e-01 9.0243899822235107e-01</leafValues></_>
        <_>
          <internalNodes>
            0 -1 20 -2.0449191331863403e-02</internalNodes>
          <leafValues>
            7.1760773658752441e-01 -8.2065796852111816e-01</leafValues></_>
        <_>
          <internalNodes>
            0 -1 14 -4.0002331137657166e-02</internalNodes>
          <leafValues>
            2.7073076367378235e-01 -8.2357621192932129e-01</leafValues></_>
        <_>
          <internalNodes>
            0 -1 29 5.4481707513332367e-02</internalNodes>
          <leafValues>
            -4.7117227315902710e-01 9.2483013868331909e-01</leafValues></_></weakClassifiers></_>
    <!-- stage 1 -->
    <_>
      <maxWeakCount>4</maxWeakCount>
      <stageThreshold>-1.8525910377502441e+00</stageThreshold>
      <weakClassifiers>
        <_>
          <internalNodes>
            0 -1 11 -9.5181077718734741e-02</internalNodes>
          <leafValues>
            9.0243899822235107e-01 -9.6456694602966309e-01</leafValues></_>
        <_>
          <internalNodes>
            0 -1 22 6.4111044630408287e-03</internalNodes>
          <leafValues>
            -8.4063851833343506e-01 5.9842914342880249e-01</leafValues></_>
        <_>
          <internalNodes>
            0 -1 23 3.2531055621802807e-03</internalNodes>
          <leafValues>
            -7.5195497274398804e-01 5.9787970781326294e-01</leafValues></_>
        <_>
          <internalNodes>
            0 -1 28 -4.5128031633794308e-03</internalNodes>
          <leafValues>
            7.0456945896148682e-01 -5.7792663574218750e-01</leafValues></_></weakClassifiers></_>
    <!-- stage 2 -->
    <_>
      <maxWeakCount>5</maxWeakCount>
      <stageThreshold>-2.4615783691406250e+00</stageThreshold>
      <weakClassifiers>
        <_>
          <internalNodes>
            0 -1 1 8.3839744329452515e-02</internalNodes>
          <leafValues>
            -9.5878314971923828e-01 8.9473682641983032e-01</leafValues></_>
        <_>
          <internalNodes>
            0 -1 4 -9.4230826944112778e-03</internalNodes>
          <leafValues>
            5.5549794435501099e-01 -8.2624715566635132e-01</leafValues></_>
        <_>
          <internalNodes>
            0 -1 9 -3.0155433341860771e-03</internalNodes>
          <leafValues>
            5.8111661672592163e-01 -5.9314787387847900e-01</leafValues></_>
        <_>
          <internalNodes>
            0 -1 26 -3.8353060372173786e-03</internalNodes>
          <leafValues>
            6.1975169181823730e-01 -5.5459153652191162e-01</leafValues></_>
        <_>
          <internalNodes>
            0 -1 18 -2.5715929223224521e-04</internalNodes>
          <leafValues>
            4.7119131684303284e-01 -6.9456380605697632e-01</leafValues></_></weakClassifiers></_>
    <!-- stage 3 -->
    <_>
      <maxWeakCount>5</maxWeakCount>
      <stageThreshold>-1.9011453390121460e+00</stageThreshold>
      <weakClassifiers>
        <_>
          <internalNodes>
            0 -1 16 -1.0545155033469200e-02</internalNodes>
          <leafValues>
            8.4210526943206787e-01 -9.5682042837142944e-01</leafValues></_>
        <_>
          <internalNodes>
            0 -1 8 3.6973275244235992e-02</internalNodes>
          <leafValues>
            -8.2312768697738647e-01 5.6082189083099365e-01</leafValues></_>
        <_>
          <internalNodes>
            0 -1 19 1.0027573443949223e-04</internalNodes>
          <leafValues>
            -8.2380980253219604e-01 1.4646422863006592e-01</leafValues></_>
        <_>
          <internalNodes>
            0 -1 25 1.2918551219627261e-03</internalNodes>
          <leafValues>
            -6.8832528591156006e-01 3.1567734479904175e-01</leafValues></_>
        <_>
          <internalNodes>
            0 -1 5 -1.1113226413726807e-02</internalNodes>
          <leafValues>
            4.2463886737823486e-01 -5.8333879709243774e-01</leafValues></_></weakClassifiers></_>
    <!-- stage 4 -->
    <_>
      <maxWeakCount>4</maxWeakCount>
      <stageThreshold>-2.3250298500061035e+00</stageThreshold>
      <weakClassifiers>
        <_>
          <internalNodes>
            0 -1 10 1.9358044862747192e-01</internalNodes>
          <leafValues>
            -9.5312500000000000e-01 1.</leafValues></_>
        <_>
          <internalNodes>
            0 -1 27 -1.9861511886119843e-02</internalNodes>
          <leafValues>
            -2.1036514639854431e-01 -8.7889033555984497e-01</leafValues></_>
        <_>
          <internalNodes>
            0 -1 17 -1.9605148583650589e-02</internalNodes>
          <leafValues>
            6.5729117393493652e-01 -5.1810353994369507e-01</leafValues></_>
        <_>
          <internalNodes>
            0 -1 0 -5.5594691075384617e-03</internalNodes>
          <leafValues>
            3.8786640763282776e-01 -6.4343613386154175e-01</leafValues></_></weakClassifiers></_>
    <!-- stage 5 -->
    <_>
      <maxWeakCount>4</maxWeakCount>
      <stageThreshold>-1.4801515340805054e+00</stageThreshold>
      <weakClassifiers>
        <_>
          <internalNodes>
            0 -1 13 -1.0533396154642105e-01</internalNodes>
          <leafValues>
            8.7878787517547607e-01 -9.4921875000000000e-01</leafValues></_>
        <_>
          <internalNodes>
            0 -1 24 7.7969990670681000e-02</internalNodes>
          <leafValues>
            -7.8076726198196411e-01 6.6508990526199341e-01</leafValues></_>
        <_>
          <internalNodes>
            0 -1 2 -6.1509483202826232e-05</internalNodes>
          <leafValues>
            -9.0484356880187988e-01 1.0748045146465302e-01</leafValues></_>
        <_>
          <internalNodes>
            0 -1 7 -5.3766334895044565e-04</internalNodes>
          <leafValues>
            -1. 1.4235399663448334e-01</leafValues></_></weakClassifiers></_>
    <!-- stage 6 -->
    <_>
      <maxWeakCount>5</maxWeakCount>
      <stageThreshold>-2.1046197414398193e+00</stageThreshold>
      <weakClassifiers>
        <_>
          <internalNodes>
            0 -1 12 1.8765032291412354e-01</internalNodes>
          <leafValues>
            -9.5289498567581177e-01 7.3684209585189819e-01</leafValues></_>
        <_>
          <internalNodes>
            0 -1 15 -6.0029411688446999e-03</internalNodes>
          <leafValues>
            7.0898401737213135e-01 -7.7797621488571167e-01</leafValues></_>
        <_>
          <internalNodes>
            0 -1 30 8.1509037408977747e-04</internalNodes>
          <leafValues>
            2.6682442054152489e-02 -9.8757302761077881e-01</leafValues></_>
        <_>
          <internalNodes>
            0 -1 3 7.2031085437629372e-05</internalNodes>
          <leafValues>
            -7.4175870418548584e-01 2.3134568333625793e-01</leafValues></_>
        <_>
          <internalNodes>
            0 -1 21 6.0361548094078898e-04</internalNodes>
          <leafValues>
            -6.3177669048309326e-01 3.6074319481849670e-01</leafValues></_></weakClassifiers></_></stages>
  <features>
    <_>
      <rects>
        <_>
          0 2 4 8 -1.</_>
        <_>
          0 6 4 4 2.</_></rects>
      <tilted>0</tilted></_>
    <_>
      <rects>
        <_>
          0 5 15 2 -1.</_>
        <_>
          5 5 5 2 3.</_></rects>
      <tilted>0</tilted></_>
    <_>
      <rects>
        <_>
          0 7 1 2 -1.</_>
        <_>
          0 8 1 1 2.</_></rects>
      <tilted>0</tilted></_>
    <_>
      <rects>
        <_>
          0 16 6 3 -1.</_>
        <_>
          0 17 6 1 3.</_></rects>
      <tilted>0</tilted></_>
    <_>
      <rects>
        <_>
          1 1 1 6 -1.</_>
        <_>
          1 4 1 3 2.</_></rects>
      <tilted>0</tilted></_>
    <_>
      <rects>
        <_>
          1 1 6 16 -1.</_>
        <_>
          3 1 2 16 3.</_></rects>
      <tilted>0</tilted></_>
    <_>
      <rects>
        <_>
          1 5 15 2 -1.</_>
        <_>
          6 5 5 2 3.</_></rects>
      <tilted>0</tilted></_>
    <_>
      <rects>
        <_>
          1 6 3 3 -1.</_>
        <_>
          1 7 3 1 3.</_></rects>
      <tilted>0</tilted></_>
    <_>
      <rects>
        <_>
          2 1 8 6 -1.</_>
        <_>
          2 1 4 3 2.</_>
        <_>
          6 4 4 3 2.</_></rects>
      <tilted>0</tilted></_>
    <_>
      <rects>
        <_>
          2 13 3 3 -1.</_>
        <_>
          3 13 1 3 3.</_></rects>
      <tilted>0</tilted></_>
    <_>
      <rects>
        <_>
          3 4 20 8 -1.</_>
        <_>
          3 4 10 4 2.</_>
        <_>
          13 8 10 4 2.</_></rects>
      <tilted>0</tilted></_>
    <_>
      <rects>
        <_>
          3 6 8 9 -1.</_>
        <_>
          3 9 8 3 3.</_></rects>
      <tilted>0</tilted></_>
    <_>
      <rects>
        <_>
          4 4 18 8 -1.</_>
        <_>
          4 4 9 4 2.</_>
        <_>
          13 8 9 4 2.</_></rects>
      <tilted>0</tilted></_>
    <_>
      <rects>
        <_>
          4 6 5 9 -1.</_>
        <_>
          4 9 5 3 3.</_></rects>
      <tilted>0</tilted></_>
    <_>
      <rects>
        <_>
          5 5 18 17 -1.</_>
        <_>
          11 5 6 17 3.</_></rects>
      <tilted>0</tilted></_>
    <_>
      <rects>
        <_>
          5 6 3 1 -1.</_>
        <_>
          6 6 1 1 3.</_></rects>
      <tilted>0</tilted></_>
    <_>
      <rects>
        <_>
          5 6 3 2 -1.</_>
        <_>
          6 6 1 2 3.</_></rects>
      <tilted>0</tilted></_>
    <_>
      <rects>
        <_>
          5 8 4 6 -1.</_>
        <_>
          5 10 4 2 3.</_></rects>
      <tilted>0</tilted></_>
    <_>
      <rects>
        <_>
          5 10 2 4 -1.</_>
        <_>
          5 10 1 2 2.</_>
        <_>
          6 12 1 2 2.</_></rects>
      <tilted>0</tilted></_>
    <_>
      <rects>
        <_>
          6 12 4 1 -1.</_>
        <_>
          8 12 2 1 2.</_></rects>
      <tilted>0</tilted></_>
    <_>
      <rects>
        <_>
          7 5 12 1 -1.</_>
        <_>
          11 5 4 1 3.</_></rects>
      <tilted>0</tilted></_>
    <_>
      <rects>
        <_>
          9 4 5 4 -1.</_>
        <_>
          9 6 5 2 2.</_></rects>
      <tilted>0</tilted></_>
    <_>
      <rects>
        <_>
          9 7 10 2 -1.</_>
        <_>
          9 7 5 1 2.</_>
        <_>
          14 8 5 1 2.</_></rects>
      <tilted>0</tilted></_>
    <_>
      <rects>
        <_>
          9 7 7 3 -1.</_>
        <_>
          9 8 7 1 3.</_></rects>
      <tilted>0</tilted></_>
    <_>
      <rects>
        <_>
          12 9 12 4 -1.</_>
        <_>
          16 9 4 4 3.</_></rects>
      <tilted>0</tilted></_>
    <_>
      <rects>
        <_>
          12 17 9 4 -1.</_>
        <_>
          15 17 3 4 3.</_></rects>
      <tilted>0</tilted></_>
    <_>
      <rects>
        <_>
          13 4 3 11 -1.</_>
        <_>
          14 4 1 11 3.</_></rects>
      <tilted>0</tilted></_>
    <_>
      <rects>
        <_>
          15 11 4 12 -1.</_>
        <_>
          15 15 4 4 3.</_></rects>
      <tilted>0</tilted></_>
    <_>
      <rects>
        <_>
          19 10 3 8 -1.</_>
        <_>
          20 10 1 8 3.</_></rects>
      <tilted>0</tilted></_>
    <_>
      <rects>
        <_>
          20 5 4 19 -1.</_>
        <_>
          22 5 2 19 2.</_></rects>
      <tilted>0</tilted></_>
    <_>
      <rects>
        <_>
          23 11 1 9 -1.</_>
        <_>
          23 14 1 3 3.</_></rects>
      <tilted>0</tilted></_></features></cascade>
</opencv_storage>
